{"learner":{"attributes":{},"feature_names":[],"feature_types":[],"gradient_booster":{"model":{"cats":{"enc":[],"feature_segments":[],"sorted_idx":[]},"gbtree_model_param":{"num_parallel_tree":"1","num_trees":"20"},"iteration_indptr":[0,1,2,3,4,5,6,7,8,9,10,11,12,13,14,15,16,17,18,19,20],"tree_info":[0,0,0,0,0,0,0,0,0,0,0,0,0,0,0,0,0,0,0,0],"trees":[{"base_weights":[-9.3941246E-8,1.1936735E0,-2.369796E0,1.4186951E0,-1.6882651E0,1.1055535E-2,-2.5256354E-1,1.4744914E-1,-2.1189794E-2,-6.5913424E-3,-2.0942883E-1],"categories":[],"categories_nodes":[],"categories_segments":[],"categories_sizes":[],"default_left":[0,0,0,0,0,0,0,0,0,0,0],"id":0,"left_children":[1,3,5,7,9,-1,-1,-1,-1,-1,-1],"loss_changes":[3.0615292E2,4.9070618E1,1.4292664E1,6.435959E0,3.5964546E0,0E0,0E0,0E0,0E0,0E0,0E0],"parents":[2147483647,0,0,1,1,2,2,3,3,4,4],"right_children":[2,4,6,8,10,-1,-1,-1,-1,-1,-1],"split_conditions":[1.424E-1,9.67E2,1.485E1,4.314E1,1.935E-1,1.1055535E-2,-2.5256354E-1,1.4744914E-1,-2.1189794E-2,-6.5913424E-3,-2.0942883E-1],"split_indices":[27,23,20,13,26,0,0,0,0,0,0],"split_type":[0,0,0,0,0,0,0,0,0,0,0],"sum_hessian":[1.0622857E2,7.097469E1,3.5253876E1,6.6305305E1,4.669388E0,2.1012244E0,3.3152653E1,6.420408E1,2.1012244E0,1.167347E0,3.5020406E0],"tree_param":{"num_deleted":"0","num_feature":"30","num_nodes":"11","size_leaf_vector":"1"}},{"base_weights":[1.0598992E-3,1.2493836E0,-1.8533348E0,1.405674E0,-6.907379E-1,3.692889E-1,-2.0687652E0,1.4366442E-1,-9.083263E-3,8.7642275E-2,-1.420793E-1,1.0934558E-1,-9.613953E-2,-1.334546E-2,-2.240989E-1],"categories":[],"categories_nodes":[],"categories_segments":[],"categories_sizes":[],"default_left":[0,0,0,0,0,0,0,0,0,0,0,0,0,0,0],"id":1,"left_children":[1,3,5,7,9,11,13,-1,-1,-1,-1,-1,-1,-1,-1],"loss_changes":[2.4858508E2,2.0431885E1,2.1451355E1,2.8985748E0,7.486641E0,5.547751E0,1.2879425E1,0E0,0E0,0E0,0E0,0E0,0E0,0E0,0E0],"parents":[2147483647,0,0,1,1,2,2,3,3,4,4,5,5,6,6],"right_children":[2,4,6,8,10,12,14,-1,-1,-1,-1,-1,-1,-1,-1],"split_conditions":[5.074E-2,1.684E1,1.022E2,4.106E0,1.573E1,2.548E1,1.929E1,1.4366442E-1,-9.083263E-3,8.7642275E-2,-1.420793E-1,1.0934558E-1,-9.613953E-2,-1.334546E-2,-2.240989E-1],"split_indices":[7,20,22,12,1,21,21,0,0,0,0,0,0,0,0],"split_type":[0,0,0,0,0,0,0,0,0,0,0,0,0,0,0],"sum_hessian":[1.0538523E2,6.3180347E1,4.220488E1,5.8725098E1,4.4552507E0,3.666182E0,3.85387E1,5.7573616E1,1.1514812E0,1.3521633E0,3.1030874E0,2.4896007E0,1.1765814E0,3.2943513E0,3.5244347E1],"tree_param":{"num_deleted":"0","num_feature":"30","num_nodes":"15","size_leaf_vector":"1"}},{"base_weights":[2.538632E-3,1.1806084E0,-1.6467046E0,1.3342954E0,-6.2608534E-1,-2.9717708E-1,-1.9597831E0,1.365255E-1,-8.585018E-3,6.450222E-2,-1.4221E-1,1.1605014E-1,-1.2101471E-1,-2.0093746E-1,-3.1714417E-2],"categories":[],"categories_nodes":[],"categories_segments":[],"categories_sizes":[],"default_left":[0,0,0,0,0,0,0,0,0,0,0,0,0,0,0],"id":2,"left_children":[1,3,5,7,9,11,13,-1,-1,-1,-1,-1,-1,-1,-1],"loss_changes":[2.0441696E2,1.7875984E1,1.794011E1,2.6180115E0,6.4741044E0,1.3959251E1,2.2469025E0,0E0,0E0,0E0,0E0,0E0,0E0,0E0,0E0],"parents":[2147483647,0,0,1,1,2,2,3,3,4,4,5,5,6,6],"right_children":[2,4,6,8,10,12,14,-1,-1,-1,-1,-1,-1,-1,-1],"split_conditions":[5.074E-2,1.684E1,1.466E-1,4.106E0,1.83E1,2.288E1,9.96E-2,1.365255E-1,-8.585018E-3,6.450222E-2,-1.4221E-1,1.1605014E-1,-1.2101471E-1,-2.0093746E-1,-3.1714417E-2],"split_indices":[7,20,27,12,1,21,16,0,0,0,0,0,0,0,0],"split_type":[0,0,0,0,0,0,0,0,0,0,0,0,0,0,0],"sum_hessian":[1.0321041E2,6.0371E1,4.2839417E1,5.5879097E1,4.491902E0,8.433962E0,3.4405453E1,5.4724735E1,1.1543629E0,1.8028022E0,2.6890996E0,3.143622E0,5.29034E0,3.318047E1,1.2249846E0],"tree_param":{"num_deleted":"0","num_feature":"30","num_nodes":"15","size_leaf_vector":"1"}},{"base_weights":[2.6519399E-3,1.12143E0,-1.4927133E0,1.2737792E0,-5.765424E-1,3.7712204E-1,-1.6708361E0,1.3056447E-1,-1.0850388E-2,8.151873E-2,-1.19392075E-1,1.0378331E-1,-7.9463094E-2,-1.0283883E-2,-1.8070862E-1],"categories":[],"categories_nodes":[],"categories_segments":[],"categories_sizes":[],"default_left":[0,0,0,0,0,0,0,0,0,0,0,0,0,0,0],"id":3,"left_children":[1,3,5,7,9,11,13,-1,-1,-1,-1,-1,-1,-1,-1],"loss_changes":[1.707368E2,1.5835678E1,1.5177361E1,2.51503E0,5.6946983E0,4.3973827E0,8.373161E0,0E0,0E0,0E0,0E0,0E0,0E0,0E0,0E0],"parents":[2147483647,0,0,1,1,2,2,3,3,4,4,5,5,6,6],"right_children":[2,4,6,8,10,12,14,-1,-1,-1,-1,-1,-1,-1,-1],"split_conditions":[5.074E-2,1.684E1,1.022E2,4.276E1,1.573E1,2.548E1,1.929E1,1.3056447E-1,-1.0850388E-2,8.151873E-2,-1.19392075E-1,1.0378331E-1,-7.9463094E-2,-1.0283883E-2,-1.8070862E-1],"split_indices":[7,20,22,13,1,21,21,0,0,0,0,0,0,0,0],"split_type":[0,0,0,0,0,0,0,0,0,0,0,0,0,0,0],"sum_hessian":[1.0005479E2,5.7377262E1,4.2677525E1,5.288227E1,4.494993E0,3.614743E0,3.9062782E1,5.174485E1,1.1374204E0,1.2828093E0,3.212184E0,2.3844974E0,1.2302455E0,3.2632537E0,3.579953E1],"tree_param":{"num_deleted":"0","num_feature":"30","num_nodes":"15","size_leaf_vector":"1"}},{"base_weights":[3.1762666E-3,1.0704786E0,-1.3723638E0,1.2214763E0,-5.2725327E-1,-3.4524882E-1,-1.6917633E-1,1.253999E-1,-1.0510129E-2,6.0267724E-2,-1.2126549E-1,9.7349115E-2,-1.4449006E-1],"categories":[],"categories_nodes":[],"categories_segments":[],"categories_sizes":[],"default_left":[0,0,0,0,0,0,0,0,0,0,0,0,0],"id":4,"left_children":[1,3,5,7,9,11,-1,-1,-1,-1,-1,-1,-1],"loss_changes":[1.4419682E2,1.398642E1,1.3494217E1,2.3248215E0,4.970111E0,1.7990217E1,0E0,0E0,0E0,0E0,0E0,0E0,0E0],"parents":[2147483647,0,0,1,1,2,2,3,3,4,4,5,5],"right_children":[2,4,6,8,10,12,-1,-1,-1,-1,-1,-1,-1],"split_conditions":[5.074E-2,1.684E1,1.146E2,4.106E0,1.83E1,2.548E1,-1.6917633E-1,1.253999E-1,-1.0510129E-2,6.0267724E-2,-1.2126549E-1,9.7349115E-2,-1.4449006E-1],"split_indices":[7,20,22,12,1,21,0,0,0,0,0,0,0],"split_type":[0,0,0,0,0,0,0,0,0,0,0,0,0],"sum_hessian":[9.621822E1,5.4304394E1,4.1913826E1,4.983053E1,4.473868E0,1.0435758E1,3.1478067E1,4.869151E1,1.13902E0,1.7347354E0,2.7391326E0,4.7973456E0,5.6384125E0],"tree_param":{"num_deleted":"0","num_feature":"30","num_nodes":"13","size_leaf_vector":"1"}},{"base_weights":[2.466988E-3,9.1529894E-1,-1.4332858E0,1.1725504E0,-7.5473577E-1,-1.5040667E0,4.4682495E-2,1.204855E-1,-1.2810771E-2,8.666322E-2,-1.2824565E-1,-2.6193941E-2,-1.5735164E-1],"categories":[],"categories_nodes":[],"categories_segments":[],"categories_sizes":[],"default_left":[0,0,0,0,0,0,0,0,0,0,0,0,0],"id":5,"left_children":[1,3,5,7,9,11,-1,-1,-1,-1,-1,-1,-1],"loss_changes":[1.2308364E2,2.5549568E1,5.5296555E0,2.261055E0,8.188723E0,2.6422348E0,0E0,0E0,0E0,0E0,0E0,0E0,0E0],"parents":[2147483647,0,0,1,1,2,2,3,3,4,4,5,5],"right_children":[2,4,6,8,10,12,-1,-1,-1,-1,-1,-1,-1],"split_conditions":[1.424E-1,1.684E1,1.197E-1,5.506E-1,1.616E1,1.933E1,4.4682495E-2,1.204855E-1,-1.2810771E-2,8.666322E-2,-1.2824565E-1,-2.6193941E-2,-1.5735164E-1],"split_indices":[27,20,16,10,1,13,0,0,0,0,0,0,0],"split_type":[0,0,0,0,0,0,0,0,0,0,0,0,0],"sum_hessian":[9.19129E1,5.6410427E1,3.550248E1,4.913897E1,7.271459E0,3.4407158E1,1.0953214E0,4.801995E1,1.1190166E0,1.6278474E0,5.6436114E0,2.074567E0,3.2332592E1],"tree_param":{"num_deleted":"0","num_feature":"30","num_nodes":"13","size_leaf_vector":"1"}},{"base_weights":[2.48375E-3,9.886085E-1,-1.2067701E0,1.1367726E0,-4.3693843E-1,-1.7583843E-1,-1.4511259E0,1.1720377E-1,-1.3117733E-2,5.6587376E-2,-1.0396446E-1,1.0161036E-1,-8.81273E-2,-1.49406E-1,-1.6302671E-2],"categories":[],"categories_nodes":[],"categories_segments":[],"categories_sizes":[],"default_left":[0,0,0,0,0,0,0,0,0,0,0,0,0,0,0],"id":6,"left_children":[1,3,5,7,9,11,13,-1,-1,-1,-1,-1,-1,-1,-1],"loss_changes":[1.0663526E2,1.0900028E1,9.8638E0,2.1611938E0,3.8276901E0,8.323816E0,1.5446091E0,0E0,0E0,0E0,0E0,0E0,0E0,0E0,0E0],"parents":[2147483647,0,0,1,1,2,2,3,3,4,4,5,5,6,6],"right_children":[2,4,6,8,10,12,14,-1,-1,-1,-1,-1,-1,-1,-1],"split_conditions":[5.074E-2,1.684E1,1.466E-1,4.276E1,1.83E1,2.288E1,9.368E-3,1.1720377E-1,-1.3117733E-2,5.6587376E-2,-1.0396446E-1,1.0161036E-1,-8.81273E-2,-1.49406E-1,-1.6302671E-2],"split_indices":[7,20,27,13,1,21,19,0,0,0,0,0,0,0,0],"split_type":[0,0,0,0,0,0,0,0,0,0,0,0,0,0,0],"sum_hessian":[8.742301E1,4.8254665E1,3.9168343E1,4.3895008E1,4.359657E0,7.834472E0,3.1333872E1,4.2780804E1,1.1142058E0,1.6595417E0,2.7001152E0,2.749079E0,5.085393E0,3.0168423E1,1.165449E0],"tree_param":{"num_deleted":"0","num_feature":"30","num_nodes":"15","size_leaf_vector":"1"}},{"base_weights":[2.014067E-3,1.0802121E0,-1.0100757E0,1.1458762E0,-2.5491199E-2,6.774533E-1,-1.2031926E0,1.1870086E-1,-1.6364543E-2,1.0699375E-1,-4.411399E-2,1.40867755E-2,-1.3444768E-1],"categories":[],"categories_nodes":[],"categories_segments":[],"categories_sizes":[],"default_left":[0,0,0,0,0,0,0,0,0,0,0,0,0],"id":7,"left_children":[1,3,5,7,-1,9,11,-1,-1,-1,-1,-1,-1],"loss_changes":[9.2584694E1,3.8935165E0,1.507761E1,2.3130226E0,0E0,2.725895E0,7.715088E0,0E0,0E0,0E0,0E0,0E0,0E0],"parents":[2147483647,0,0,1,1,2,2,3,3,5,5,6,6],"right_children":[2,4,6,8,-1,10,12,-1,-1,-1,-1,-1,-1],"split_conditions":[1.017E2,5.669E-2,2.085E-1,4.009E1,-2.5491199E-2,1.954E1,1.962E1,1.1870086E-1,-1.6364543E-2,1.0699375E-1,-4.411399E-2,1.40867755E-2,-1.3444768E-1],"split_indices":[22,7,26,13,0,1,21,0,0,0,0,0,0],"split_type":[0,0,0,0,0,0,0,0,0,0,0,0,0],"sum_hessian":[8.284422E1,4.0079487E1,4.2764736E1,3.8335804E1,1.7436852E0,4.1338224E0,3.8630913E1,3.725904E1,1.076761E0,3.0923111E0,1.0415114E0,3.6748047E0,3.495611E1],"tree_param":{"num_deleted":"0","num_feature":"30","num_nodes":"13","size_leaf_vector":"1"}},{"base_weights":[3.032673E-3,9.2163074E-1,-1.0837386E0,1.0691836E0,-3.7480542E-1,-2.2530475E-1,-1.3668287E-1,1.10793725E-1,-1.5606606E-2,6.95469E-2,-8.34152E-2,8.939609E-2,-1.15848206E-1],"categories":[],"categories_nodes":[],"categories_segments":[],"categories_sizes":[],"default_left":[0,0,0,0,0,0,0,0,0,0,0,0,0],"id":8,"left_children":[1,3,5,7,9,11,-1,-1,-1,-1,-1,-1,-1],"loss_changes":[8.0410614E1,8.750504E0,8.658642E0,2.0460358E0,3.1369264E0,1.1843511E1,0E0,0E0,0E0,0E0,0E0,0E0,0E0],"parents":[2147483647,0,0,1,1,2,2,3,3,4,4,5,5],"right_children":[2,4,6,8,10,12,-1,-1,-1,-1,-1,-1,-1],"split_conditions":[5.074E-2,1.684E1,1.146E2,4.106E0,1.573E1,2.548E1,-1.3668287E-1,1.10793725E-1,-1.5606606E-2,6.95469E-2,-8.34152E-2,8.939609E-2,-1.15848206E-1],"split_indices":[7,20,22,12,1,21,0,0,0,0,0,0,0],"split_type":[0,0,0,0,0,0,0,0,0,0,0,0,0],"sum_hessian":[7.854656E1,4.2649147E1,3.589742E1,3.8448456E1,4.200691E0,9.347677E0,2.654974E1,3.736246E1,1.0859945E0,1.1071049E0,3.0935862E0,4.269184E0,5.0784926E0],"tree_param":{"num_deleted":"0","num_feature":"30","num_nodes":"13","size_leaf_vector":"1"}},{"base_weights":[2.2993253E-3,1.0184368E0,-9.108854E-1,1.0868032E0,-2.2652222E-2,6.326435E-1,-1.0908304E0,1.1322098E-1,-1.696848E-2,1.01527505E-1,-4.060383E-2,1.3496014E-2,-1.2270297E-1],"categories":[],"categories_nodes":[],"categories_segments":[],"categories_sizes":[],"default_left":[0,0,0,0,0,0,0,0,0,0,0,0,0],"id":9,"left_children":[1,3,5,7,-1,9,11,-1,-1,-1,-1,-1,-1],"loss_changes":[7.048505E1,3.3062096E0,1.1802376E1,2.1463661E0,0E0,2.3239322E0,6.2089195E0,0E0,0E0,0E0,0E0,0E0,0E0],"parents":[2147483647,0,0,1,1,2,2,3,3,5,5,6,6],"right_children":[2,4,6,8,-1,10,12,-1,-1,-1,-1,-1,-1],"split_conditions":[1.017E2,5.669E-2,2.085E-1,4.009E1,-2.2652222E-2,1.954E1,1.962E1,1.1322098E-1,-1.696848E-2,1.01527505E-1,-4.060383E-2,1.3496014E-2,-1.2270297E-1],"split_indices":[22,7,26,13,0,1,21,0,0,0,0,0,0],"split_type":[0,0,0,0,0,0,0,0,0,0,0,0,0],"sum_hessian":[7.396042E1,3.4952312E1,3.9008106E1,3.325326E1,1.6990513E0,3.8101058E0,3.5198E1,3.2188934E1,1.0643252E0,2.8008566E0,1.0092493E0,3.5207164E0,3.1677286E1],"tree_param":{"num_deleted":"0","num_feature":"30","num_nodes":"13","size_leaf_vector":"1"}},{"base_weights":[3.2553936E-3,7.7772033E-1,-1.1197529E0,1.0127367E0,-5.190985E-1,-1.1918463E0,4.609729E-2,1.1194455E-1,3.8433384E-2,7.490971E-2,-9.517534E-2,-6.033279E-3,-1.2507427E-1],"categories":[],"categories_nodes":[],"categories_segments":[],"categories_sizes":[],"default_left":[0,0,0,0,0,0,0,0,0,0,0,0,0],"id":10,"left_children":[1,3,5,7,9,11,-1,-1,-1,-1,-1,-1,-1],"loss_changes":[6.2494175E1,1.3485991E1,3.8917465E0,2.0065117E0,4.655443E0,1.8124237E0,0E0,0E0,0E0,0E0,0E0,0E0,0E0],"parents":[2147483647,0,0,1,1,2,2,3,3,4,4,5,5],"right_children":[2,4,6,8,10,12,-1,-1,-1,-1,-1,-1,-1],"split_conditions":[1.418E-1,1.684E1,1.197E-1,2.158E1,1.616E1,2.137E-1,4.609729E-2,1.1194455E-1,3.8433384E-2,7.490971E-2,-9.517534E-2,-6.033279E-3,-1.2507427E-1],"split_indices":[27,20,16,1,1,10,0,0,0,0,0,0,0],"split_type":[0,0,0,0,0,0,0,0,0,0,0,0,0],"sum_hessian":[6.9853355E1,4.1524265E1,2.8329088E1,3.5339005E1,6.1852603E0,2.7328701E1,1.0003878E0,2.9541216E1,5.7977877E0,1.3873299E0,4.7979302E0,1.4522676E0,2.5876432E1],"tree_param":{"num_deleted":"0","num_feature":"30","num_nodes":"13","size_leaf_vector":"1"}},{"base_weights":[4.178845E-3,8.4122074E-1,-9.575157E-1,9.8546237E-1,-2.8282696E-1,-1.6727775E-1,-1.2369899E-1,1.0321268E-1,-2.1484382E-2,3.904341E-2,-9.515968E-2,8.371246E-2,-1.02040194E-1],"categories":[],"categories_nodes":[],"categories_segments":[],"categories_sizes":[],"default_left":[0,0,0,0,0,0,0,0,0,0,0,0,0],"id":11,"left_children":[1,3,5,7,9,11,-1,-1,-1,-1,-1,-1,-1],"loss_changes":[5.4523495E1,6.149721E0,6.7546406E0,2.0317879E0,2.5756412E0,8.90178E0,0E0,0E0,0E0,0E0,0E0,0E0,0E0],"parents":[2147483647,0,0,1,1,2,2,3,3,4,4,5,5],"right_children":[2,4,6,8,10,12,-1,-1,-1,-1,-1,-1,-1],"split_conditions":[5.074E-2,1.684E1,1.146E2,4.106E0,1.954E1,2.548E1,-1.2369899E-1,1.0321268E-1,-2.1484382E-2,3.904341E-2,-9.515968E-2,8.371246E-2,-1.02040194E-1],"split_indices":[7,20,22,12,1,21,0,0,0,0,0,0,0],"split_type":[0,0,0,0,0,0,0,0,0,0,0,0,0],"sum_hessian":[6.573222E1,3.5210712E1,3.0521507E1,3.1315493E1,3.8952196E0,8.39172E0,2.2129787E1,3.027847E1,1.037024E0,2.1484907E0,1.7467288E0,3.8627596E0,4.5289598E0],"tree_param":{"num_deleted":"0","num_feature":"30","num_nodes":"13","size_leaf_vector":"1"}},{"base_weights":[2.3823057E-3,7.197349E-1,-1.051127E0,9.591027E-1,-4.7994065E-1,5.2287675E-2,-1.1745044E0,1.0772562E-1,3.0970454E-2,7.074457E-2,-8.749964E-2,8.8521205E-2,-8.2420595E-2,-3.3616465E-2,-1.1978209E-1],"categories":[],"categories_nodes":[],"categories_segments":[],"categories_sizes":[],"default_left":[0,0,0,0,0,0,0,0,0,0,0,0,0,0,0],"id":12,"left_children":[1,3,5,7,9,11,13,-1,-1,-1,-1,-1,-1,-1,-1],"loss_changes":[4.8092625E1,1.1331274E1,3.5709114E0,2.11347E0,3.885448E0,3.3212705E0,5.140686E-2,0E0,0E0,0E0,0E0,0E0,0E0,0E0,0E0],"parents":[2147483647,0,0,1,1,2,2,3,3,4,4,5,5,6,6],"right_children":[2,4,6,8,10,12,14,-1,-1,-1,-1,-1,-1,-1,-1],"split_conditions":[1.424E-1,1.684E1,1.534E1,2.158E1,1.616E1,1.074E-1,6.218E-1,1.0772562E-1,3.0970454E-2,7.074457E-2,-8.749964E-2,8.8521205E-2,-8.2420595E-2,-3.3616465E-2,-1.1978209E-1],"split_indices":[27,20,20,1,1,4,11,0,0,0,0,0,0,0,0],"split_type":[0,0,0,0,0,0,0,0,0,0,0,0,0,0,0],"sum_hessian":[6.163562E1,3.685633E1,2.477929E1,3.0892895E1,5.963438E0,2.5499804E0,2.222931E1,2.5579945E1,5.312949E0,1.2913587E0,4.6720796E0,1.3023866E0,1.2475936E0,1.0187266E0,2.1210583E1],"tree_param":{"num_deleted":"0","num_feature":"30","num_nodes":"15","size_leaf_vector":"1"}},{"base_weights":[2.140746E-3,9.168402E-1,-7.739578E-1,9.904925E-1,-1.9709548E-2,6.0030174E-1,-9.476675E-1,1.0508269E-1,-2.5644785E-2,8.51501E-2,-3.952349E-3,1.4952786E-2,-1.0834738E-1],"categories":[],"categories_nodes":[],"categories_segments":[],"categories_sizes":[],"default_left":[0,0,0,0,0,0,0,0,0,0,0,0,0],"id":13,"left_children":[1,3,5,7,-1,9,11,-1,-1,-1,-1,-1,-1],"loss_changes":[4.246432E1,2.4478207E0,8.29442E0,2.2194672E0,0E0,7.157322E-1,4.500799E0,0E0,0E0,0E0,0E0,0E0,0E0],"parents":[2147483647,0,0,1,1,2,2,3,3,5,5,6,6],"right_children":[2,4,6,8,-1,10,12,-1,-1,-1,-1,-1,-1],"split_conditions":[1.017E2,5.669E-2,2.085E-1,4.009E1,-1.9709548E-2,1.931E1,1.962E1,1.0508269E-1,-2.5644785E-2,8.51501E-2,-3.952349E-3,1.4952786E-2,-1.0834738E-1],"split_indices":[22,7,26,13,0,1,21,0,0,0,0,0,0],"split_type":[0,0,0,0,0,0,0,0,0,0,0,0,0],"sum_hessian":[5.7818012E1,2.6455988E1,3.1362022E1,2.4919174E1,1.5368152E0,3.2437956E0,2.8118227E1,2.3919102E1,1.0000725E0,2.0917344E0,1.1520611E0,3.0858932E0,2.5032335E1],"tree_param":{"num_deleted":"0","num_feature":"30","num_nodes":"13","size_leaf_vector":"1"}},{"base_weights":[3.4136856E-3,6.8038905E-1,-9.8773766E-1,9.128522E-1,-4.1880515E-1,5.960995E-2,-1.114665E0,1.0420972E-1,2.617749E-2,6.722702E-2,-7.916214E-2,8.4887564E-2,-7.784977E-2,-4.3453928E-2,-1.1636098E-1],"categories":[],"categories_nodes":[],"categories_segments":[],"categories_sizes":[],"default_left":[0,0,0,0,0,0,0,0,0,0,0,0,0,0,0],"id":14,"left_children":[1,3,5,7,9,11,13,-1,-1,-1,-1,-1,-1,-1,-1],"loss_changes":[3.7874313E1,8.951361E0,3.1118736E0,2.083006E0,3.1923325E0,2.9267473E0,1.7622757E-1,0E0,0E0,0E0,0E0,0E0,0E0,0E0,0E0],"parents":[2147483647,0,0,1,1,2,2,3,3,4,4,5,5,6,6],"right_children":[2,4,6,8,10,12,14,-1,-1,-1,-1,-1,-1,-1,-1],"split_conditions":[1.424E-1,1.684E1,1.534E1,2.158E1,1.616E1,1.074E-1,2.506E1,1.0420972E-1,2.617749E-2,6.722702E-2,-7.916214E-2,8.4887564E-2,-7.784977E-2,-4.3453928E-2,-1.1636098E-1],"split_indices":[27,20,20,1,1,4,13,0,0,0,0,0,0,0,0],"split_type":[0,0,0,0,0,0,0,0,0,0,0,0,0,0,0],"sum_hessian":[5.4444256E1,3.2535454E1,2.1908802E1,2.6995775E1,5.539678E0,2.4254496E0,1.9483353E1,2.202336E1,4.972416E0,1.2062562E0,4.3334217E0,1.2425053E0,1.1829444E0,1.9711283E0,1.7512224E1],"tree_param":{"num_deleted":"0","num_feature":"30","num_nodes":"15","size_leaf_vector":"1"}},{"base_weights":[2.8276055E-3,7.4979836E-1,-8.449668E-1,9.427368E-1,7.2893426E-3,-1.2972271E-1,-1.1242781E-1,1.0202781E-1,-4.745697E-3,8.237622E-2,-6.999146E-2,7.660241E-2,-8.9734145E-2],"categories":[],"categories_nodes":[],"categories_segments":[],"categories_sizes":[],"default_left":[0,0,0,0,0,0,0,0,0,0,0,0,0],"id":15,"left_children":[1,3,5,7,9,11,-1,-1,-1,-1,-1,-1,-1],"loss_changes":[3.359152E1,4.032546E0,4.817934E0,1.7662582E0,4.5165014E0,6.262659E0,0E0,0E0,0E0,0E0,0E0,0E0,0E0],"parents":[2147483647,0,0,1,1,2,2,3,3,4,4,5,5],"right_children":[2,4,6,8,10,12,-1,-1,-1,-1,-1,-1,-1],"split_conditions":[5.074E-2,2.158E1,1.146E2,9.67E2,1.438E1,2.548E1,-1.1242781E-1,1.0202781E-1,-4.745697E-3,8.237622E-2,-6.999146E-2,7.660241E-2,-8.9734145E-2],"split_indices":[7,1,22,23,20,21,0,0,0,0,0,0,0],"split_type":[0,0,0,0,0,0,0,0,0,0,0,0,0],"sum_hessian":[5.104346E1,2.7196703E1,2.3846756E1,2.137327E1,5.823434E0,7.1084037E0,1.6738352E1,1.979292E1,1.5803508E0,2.626408E0,3.1970258E0,3.2813826E0,3.8270214E0],"tree_param":{"num_deleted":"0","num_feature":"30","num_nodes":"13","size_leaf_vector":"1"}},{"base_weights":[2.661104E-3,8.3238643E-1,-7.217817E-1,9.640446E-1,-2.4133354E-1,4.0170762E-1,-9.248013E-1,1.0363807E-2,1.0038195E-1,5.86694E-2,-8.6874254E-2,9.162411E-2,-4.960186E-2,1.0421417E-2,-1.06368996E-1],"categories":[],"categories_nodes":[],"categories_segments":[],"categories_sizes":[],"default_left":[0,0,0,0,0,0,0,0,0,0,0,0,0,0,0],"id":16,"left_children":[1,3,5,7,9,11,13,-1,-1,-1,-1,-1,-1,-1,-1],"loss_changes":[2.995733E1,3.5164928E0,6.4408207E0,6.109657E-1,2.243328E0,2.6576312E0,3.3750572E0,0E0,0E0,0E0,0E0,0E0,0E0,0E0,0E0],"parents":[2147483647,0,0,1,1,2,2,3,3,4,4,5,5,6,6],"right_children":[2,4,6,8,10,12,14,-1,-1,-1,-1,-1,-1,-1,-1],"split_conditions":[1.112E-1,1.499E1,7.259E2,1.988E-1,1.954E1,1.084E-1,1.962E1,1.0363807E-2,1.0038195E-1,5.86694E-2,-8.6874254E-2,9.162411E-2,-4.960186E-2,1.0421417E-2,-1.06368996E-1],"split_indices":[27,0,23,28,1,4,21,0,0,0,0,0,0,0,0],"split_type":[0,0,0,0,0,0,0,0,0,0,0,0,0,0,0],"sum_hessian":[4.7838943E1,2.2229662E1,2.5609282E1,1.9892603E1,2.3370588E0,3.7696683E0,2.1839613E1,1.0382805E0,1.8854322E1,1.0354327E0,1.301626E0,2.3831418E0,1.3865265E0,2.626884E0,1.9212729E1],"tree_param":{"num_deleted":"0","num_feature":"30","num_nodes":"15","size_leaf_vector":"1"}},{"base_weights":[3.4728828E-3,5.551507E-1,-1.0284945E0,7.9330677E-1,-4.5607364E-1,-1.1288642E-2,-1.0853656E-1,1.017046E-1,8.292873E-3,2.3848822E-2,-9.2621885E-2],"categories":[],"categories_nodes":[],"categories_segments":[],"categories_sizes":[],"default_left":[0,0,0,0,0,0,0,0,0,0,0],"id":17,"left_children":[1,3,5,7,9,-1,-1,-1,-1,-1,-1],"loss_changes":[2.6721624E1,7.7267704E0,7.289505E-1,3.9077816E0,2.3318157E0,0E0,0E0,0E0,0E0,0E0,0E0],"parents":[2147483647,0,0,1,1,2,2,3,3,4,4],"right_children":[2,4,6,8,10,-1,-1,-1,-1,-1,-1],"split_conditions":[1.515E-1,8.765E2,1.497E1,2.135E1,1.954E1,-1.1288642E-2,-1.0853656E-1,1.017046E-1,8.292873E-3,2.3848822E-2,-9.2621885E-2],"split_indices":[27,23,20,1,1,0,0,0,0,0,0],"split_type":[0,0,0,0,0,0,0,0,0,0,0],"sum_hessian":[4.4933666E1,2.9581686E1,1.535198E1,2.4117264E1,5.4644217E0,1.0723524E0,1.4279628E1,1.8012413E1,6.104851E0,2.4046633E0,3.0597584E0],"tree_param":{"num_deleted":"0","num_feature":"30","num_nodes":"11","size_leaf_vector":"1"}},{"base_weights":[1.5900624E-3,6.847093E-1,-7.835361E-1,8.7574476E-1,-5.3167794E-2,-8.710958E-2,-1.04965664E-1,9.6286386E-2,-2.7664358E-2,7.5428806E-2,-7.1702555E-2,6.345412E-2,-7.6898806E-2],"categories":[],"categories_nodes":[],"categories_segments":[],"categories_sizes":[],"default_left":[0,0,0,0,0,0,0,0,0,0,0,0,0],"id":18,"left_children":[1,3,5,7,9,11,-1,-1,-1,-1,-1,-1,-1],"loss_changes":[2.3720795E1,3.3801289E0,3.7224264E0,2.1580772E0,3.6532176E0,3.8242018E0,0E0,0E0,0E0,0E0,0E0,0E0,0E0],"parents":[2147483647,0,0,1,1,2,2,3,3,4,4,5,5],"right_children":[2,4,6,8,10,12,-1,-1,-1,-1,-1,-1,-1],"split_conditions":[5.074E-2,2.987E1,1.515E-1,2.105E0,1.438E1,1.998E1,-1.04965664E-1,9.6286386E-2,-2.7664358E-2,7.5428806E-2,-7.1702555E-2,6.345412E-2,-7.6898806E-2],"split_indices":[7,21,27,11,20,1,0,0,0,0,0,0,0],"split_type":[0,0,0,0,0,0,0,0,0,0,0,0,0],"sum_hessian":[4.2227287E1,2.2648914E1,1.9578373E1,1.7842636E1,4.806279E0,5.779913E0,1.3798461E1,1.6741465E1,1.1011709E0,2.107134E0,2.6991448E0,2.8417902E0,2.9381227E0],"tree_param":{"num_deleted":"0","num_feature":"30","num_nodes":"13","size_leaf_vector":"1"}},{"base_weights":[5.359588E-4,7.7090627E-1,-6.570841E-1,8.89479E-1,-4.0553335E-2,-8.129124E-2,-1.0537539E-1,1.006725E-1,1.6572302E-2,6.3519366E-2,-7.9357795E-2],"categories":[],"categories_nodes":[],"categories_segments":[],"categories_sizes":[],"default_left":[0,0,0,0,0,0,0,0,0,0,0],"id":19,"left_children":[1,3,5,7,-1,9,-1,-1,-1,-1,-1],"loss_changes":[2.1161835E1,3.044054E0,5.06137E0,1.3426199E0,0E0,5.748231E0,0E0,0E0,0E0,0E0,0E0],"parents":[2147483647,0,0,1,1,2,2,3,3,5,5],"right_children":[2,4,6,8,-1,10,-1,-1,-1,-1,-1],"split_conditions":[1.112E-1,4.855E1,1.162E2,3.137E1,-4.0553335E-2,2.737E1,-1.0537539E-1,1.006725E-1,1.6572302E-2,6.3519366E-2,-7.9357795E-2],"split_indices":[27,13,22,21,0,21,0,0,0,0,0],"split_type":[0,0,0,0,0,0,0,0,0,0,0],"sum_hessian":[3.977149E1,1.8236288E1,2.1535202E1,1.6788143E1,1.448145E0,9.275755E0,1.2259447E1,1.4111203E1,2.6769395E0,4.6782074E0,4.5975475E0],"tree_param":{"num_deleted":"0","num_feature":"30","num_nodes":"11","size_leaf_vector":"1"}}]},"name":"gbtree"},"learner_model_param":{"base_score":"[6.2857145E-1]","boost_from_average":"1","num_class":"0","num_feature":"30","num_target":"1"},"objective":{"name":"binary:logistic","reg_loss_param":{"scale_pos_weight":"1"}}},"version":[3,2,0]}