{"learner":{"attributes":{},"feature_names":[],"feature_types":[],"gradient_booster":{"model":{"cats":{"enc":[],"feature_segments":[],"sorted_idx":[]},"gbtree_model_param":{"num_parallel_tree":"1","num_trees":"20"},"iteration_indptr":[0,1,2,3,4,5,6,7,8,9,10,11,12,13,14,15,16,17,18,19,20],"tree_info":[0,0,0,0,0,0,0,0,0,0,0,0,0,0,0,0,0,0,0,0],"trees":[{"base_weights":[2.1551962E-6,-3.552351E1,5.144785E1,-5.2829765E1,1.0741674E1,3.705116E1,1.1299444E2,-7.140181E0,-4.339292E0,-1.5884881E0,2.6283367E0,2.1806905E0,7.4520416E0,1.3024959E1,6.4011965E0],"categories":[],"categories_nodes":[],"categories_segments":[],"categories_sizes":[],"default_left":[0,0,0,0,0,0,0,0,0,0,0,0,0,0,0],"id":0,"left_children":[1,3,5,7,9,11,13,-1,-1,-1,-1,-1,-1,-1,-1],"loss_changes":[6.488009E5,1.6870969E5,1.24293125E5,2.3716688E4,2.4419168E4,6.634664E4,1.4482875E4,0E0,0E0,0E0,0E0,0E0,0E0,0E0,0E0],"parents":[2147483647,0,0,1,1,2,2,3,3,4,4,5,5,6,6],"right_children":[2,4,6,8,10,12,14,-1,-1,-1,-1,-1,-1,-1,-1],"split_conditions":[5.6499788E-3,6.2067355E-3,7.355214E-2,-4.2570855E-2,-2.3450946E-2,3.6201265E-2,2.2485405E-2,-7.140181E0,-4.339292E0,-1.5884881E0,2.6283367E0,2.1806905E0,7.4520416E0,1.3024959E1,6.4011965E0],"split_indices":[2,8,2,8,2,9,5,0,0,0,0,0,0,0,0],"split_type":[0,0,0,0,0,0,0,0,0,0,0,0,0,0,0],"sum_hessian":[3.53E2,2.09E2,1.44E2,1.52E2,5.7E1,1.18E2,2.6E1,4.9E1,1.03E2,2.1E1,3.6E1,8.5E1,3.3E1,1.8E1,8E0],"tree_param":{"num_deleted":"0","num_feature":"10","num_nodes":"15","size_leaf_vector":"1"}},{"base_weights":[5.2597694E-2,-3.202087E1,4.6503468E1,-4.3991238E1,2.3318453E1,3.342699E1,1.0241448E2,-4.9432707E0,-8.149104E-1,-2.788503E0,4.017074E0,2.664028E-1,4.896945E0,2.8740754E0,1.1042617E1],"categories":[],"categories_nodes":[],"categories_segments":[],"categories_sizes":[],"default_left":[0,0,0,0,0,0,0,0,0,0,0,0,0,0,0],"id":1,"left_children":[1,3,5,7,9,11,13,-1,-1,-1,-1,-1,-1,-1,-1],"loss_changes":[5.288926E5,1.4013652E5,1.02588875E5,3.3338E4,3.3910207E4,5.676728E4,1.27630625E4,0E0,0E0,0E0,0E0,0E0,0E0,0E0,0E0],"parents":[2147483647,0,0,1,1,2,2,3,3,4,4,5,5,6,6],"right_children":[2,4,6,8,10,12,14,-1,-1,-1,-1,-1,-1,-1,-1],"split_conditions":[5.6499788E-3,2.2687744E-2,7.355214E-2,3.2832813E-2,-3.207709E-2,8.640601E-3,-5.2737556E-2,-4.9432707E0,-8.149104E-1,-2.788503E0,4.017074E0,2.664028E-1,4.896945E0,2.8740754E0,1.1042617E1],"split_indices":[2,8,2,7,3,8,0,0,0,0,0,0,0,0,0],"split_type":[0,0,0,0,0,0,0,0,0,0,0,0,0,0,0],"sum_hessian":[3.53E2,2.09E2,1.44E2,1.72E2,3.7E1,1.18E2,2.6E1,1.49E2,2.3E1,9E0,2.8E1,4E1,7.8E1,3E0,2.3E1],"tree_param":{"num_deleted":"0","num_feature":"10","num_nodes":"15","size_leaf_vector":"1"}},{"base_weights":[8.844011E-2,-2.7115164E1,4.4953426E1,-4.583717E1,5.1799088E0,1.9241861E1,6.74969E1,-4.760281E0,2.6095338E0,6.2452015E-2,7.520799E0,5.6935906E-1,6.311997E0,-4.9122424E0,7.158909E0],"categories":[],"categories_nodes":[],"categories_segments":[],"categories_sizes":[],"default_left":[0,0,0,0,0,0,0,0,0,0,0,0,0,0,0],"id":2,"left_children":[1,3,5,7,9,11,13,-1,-1,-1,-1,-1,-1,-1,-1],"loss_changes":[4.332721E5,1.3386036E5,7.637141E4,1.9023188E4,2.6111451E4,3.7686855E4,3.7399844E4,0E0,0E0,0E0,0E0,0E0,0E0,0E0,0E0],"parents":[2147483647,0,0,1,1,2,2,3,3,4,4,5,5,6,6],"right_children":[2,4,6,8,10,12,14,-1,-1,-1,-1,-1,-1,-1,-1],"split_conditions":[9.961227E-3,-2.3983933E-3,1.7293394E-2,7.947843E-2,1.081111E-1,4.448548E-2,-4.987245E-2,-4.760281E0,2.6095338E0,6.2452015E-2,7.520799E0,5.6935906E-1,6.311997E0,-4.9122424E0,7.158909E0],"split_indices":[2,8,3,5,7,9,8,0,0,0,0,0,0,0,0],"split_type":[0,0,0,0,0,0,0,0,0,0,0,0,0,0,0],"sum_hessian":[3.53E2,2.2E2,1.33E2,1.39E2,8.1E1,6.3E1,7E1,1.36E2,3E0,7.7E1,4E0,4.9E1,1.4E1,2E0,6.8E1],"tree_param":{"num_deleted":"0","num_feature":"10","num_nodes":"15","size_leaf_vector":"1"}},{"base_weights":[1.2072819E-1,-3.056152E1,3.2398464E1,-4.095453E1,7.3575234E0,1.7313969E1,8.054089E1,-4.7542434E0,-2.0053177E0,-2.4098918E0,2.522249E0,1.6642411E-1,3.4160328E0,9.613093E0,4.3607893E0],"categories":[],"categories_nodes":[],"categories_segments":[],"categories_sizes":[],"default_left":[0,0,0,0,0,0,0,0,0,0,0,0,0,0,0],"id":3,"left_children":[1,3,5,7,9,11,13,-1,-1,-1,-1,-1,-1,-1,-1],"loss_changes":[3.5157528E5,7.2026234E4,1.2423886E5,1.8737172E4,2.3086564E4,3.5007387E4,1.9415188E4,0E0,0E0,0E0,0E0,0E0,0E0,0E0,0E0],"parents":[2147483647,0,0,1,1,2,2,3,3,4,4,5,5,6,6],"right_children":[2,4,6,8,10,12,14,-1,-1,-1,-1,-1,-1,-1,-1],"split_conditions":[2.7247815E-4,6.727791E-3,5.6307144E-2,3.081083E-2,-3.207709E-2,1.7293394E-2,2.2485405E-2,-4.7542434E0,-2.0053177E0,-2.4098918E0,2.522249E0,1.6642411E-1,3.4160328E0,9.613093E0,4.3607893E0],"split_indices":[8,2,2,0,3,3,5,0,0,0,0,0,0,0,0],"split_type":[0,0,0,0,0,0,0,0,0,0,0,0,0,0,0],"sum_hessian":[3.53E2,1.81E2,1.72E2,1.42E2,3.9E1,1.32E2,4E1,1.07E2,3.5E1,1.4E1,2.5E1,6.9E1,6.3E1,2.7E1,1.3E1],"tree_param":{"num_deleted":"0","num_feature":"10","num_nodes":"15","size_leaf_vector":"1"}},{"base_weights":[1.3947076E-1,-2.230263E1,3.715115E1,-3.722594E1,3.4481766E0,2.6130688E1,7.985702E1,-2.647105E0,-5.0329337E0,-7.1847886E-2,6.775837E0,7.7095276E-1,4.5101523E0,9.3474E0,4.2237062E0],"categories":[],"categories_nodes":[],"categories_segments":[],"categories_sizes":[],"default_left":[0,0,0,0,0,0,0,0,0,0,0,0,0,0,0],"id":4,"left_children":[1,3,5,7,9,11,13,-1,-1,-1,-1,-1,-1,-1,-1],"loss_changes":[2.94868E5,8.505584E4,6.0978812E4,1.8397312E4,2.2021273E4,3.7394492E4,9.883219E3,0E0,0E0,0E0,0E0,0E0,0E0,0E0,0E0],"parents":[2147483647,0,0,1,1,2,2,3,3,4,4,5,5,6,6],"right_children":[2,4,6,8,10,12,14,-1,-1,-1,-1,-1,-1,-1,-1],"split_conditions":[9.961227E-3,-2.3983933E-3,7.355214E-2,2.2868635E-2,1.081111E-1,1.7293394E-2,2.2485405E-2,-2.647105E0,-5.0329337E0,-7.1847886E-2,6.775837E0,7.7095276E-1,4.5101523E0,9.3474E0,4.2237062E0],"split_indices":[2,8,2,6,7,3,5,0,0,0,0,0,0,0,0],"split_type":[0,0,0,0,0,0,0,0,0,0,0,0,0,0,0],"sum_hessian":[3.53E2,2.2E2,1.33E2,1.39E2,8.1E1,1.07E2,2.6E1,7.8E1,6.1E1,7.7E1,4E0,5.5E1,5.2E1,1.8E1,8E0],"tree_param":{"num_deleted":"0","num_feature":"10","num_nodes":"15","size_leaf_vector":"1"}},{"base_weights":[1.7602447E-1,-2.5233498E1,2.690641E1,-3.3350063E1,4.4140697E0,1.4276582E1,6.722009E1,-3.620433E0,4.192441E-1,-2.2341363E0,1.9680127E0,3.7904513E-1,3.5401018E0,8.014857E0,3.6561692E0],"categories":[],"categories_nodes":[],"categories_segments":[],"categories_sizes":[],"default_left":[0,0,0,0,0,0,0,0,0,0,0,0,0,0,0],"id":5,"left_children":[1,3,5,7,9,11,13,-1,-1,-1,-1,-1,-1,-1,-1],"loss_changes":[2.41118E5,4.3943047E4,8.712412E4,1.5475125E4,1.6777678E4,2.9327123E4,1.3320656E4,0E0,0E0,0E0,0E0,0E0,0E0,0E0,0E0],"parents":[2147483647,0,0,1,1,2,2,3,3,4,4,5,5,6,6],"right_children":[2,4,6,8,10,12,14,-1,-1,-1,-1,-1,-1,-1,-1],"split_conditions":[2.7247815E-4,6.727791E-3,5.6307144E-2,4.5345243E-2,-3.207709E-2,3.205916E-2,2.2485405E-2,-3.620433E0,4.192441E-1,-2.2341363E0,1.9680127E0,3.7904513E-1,3.5401018E0,8.014857E0,3.6561692E0],"split_indices":[8,2,2,5,3,9,5,0,0,0,0,0,0,0,0],"split_type":[0,0,0,0,0,0,0,0,0,0,0,0,0,0,0],"sum_hessian":[3.53E2,1.81E2,1.72E2,1.42E2,3.9E1,1.32E2,4E1,1.32E2,1E1,1.4E1,2.5E1,8.9E1,4.3E1,2.7E1,1.3E1],"tree_param":{"num_deleted":"0","num_feature":"10","num_nodes":"15","size_leaf_vector":"1"}},{"base_weights":[1.9266675E-1,-1.8405748E1,3.0864735E1,-2.7588608E1,1.1222722E1,2.1665043E1,6.652036E1,-3.1324315E0,1.6008447E0,-1.6701529E0,2.6060953E0,-2.3302595E-1,3.3695056E0,1.252829E0,7.274736E0],"categories":[],"categories_nodes":[],"categories_segments":[],"categories_sizes":[],"default_left":[0,0,0,0,0,0,0,0,0,0,0,0,0,0,0],"id":6,"left_children":[1,3,5,7,9,11,13,-1,-1,-1,-1,-1,-1,-1,-1],"loss_changes":[2.0250803E5,6.0437984E4,4.2513625E4,2.8025773E4,2.2395617E4,3.1254219E4,8.1662344E3,0E0,0E0,0E0,0E0,0E0,0E0,0E0,0E0],"parents":[2147483647,0,0,1,1,2,2,3,3,4,4,5,5,6,6],"right_children":[2,4,6,8,10,12,14,-1,-1,-1,-1,-1,-1,-1,-1],"split_conditions":[9.961227E-3,3.2832813E-2,7.355214E-2,2.736405E-2,-2.6327528E-2,8.640601E-3,-5.2737556E-2,-3.1324315E0,1.6008447E0,-1.6701529E0,2.6060953E0,-2.3302595E-1,3.3695056E0,1.252829E0,7.274736E0],"split_indices":[2,7,2,8,3,8,0,0,0,0,0,0,0,0,0],"split_type":[0,0,0,0,0,0,0,0,0,0,0,0,0,0,0],"sum_hessian":[3.53E2,2.2E2,1.33E2,1.68E2,5.2E1,1.07E2,2.6E1,1.55E2,1.3E1,1.8E1,3.4E1,3.6E1,7.1E1,3E0,2.3E1],"tree_param":{"num_deleted":"0","num_feature":"10","num_nodes":"15","size_leaf_vector":"1"}},{"base_weights":[2.0466715E-1,-1.656787E1,2.7865307E1,7.738346E0,-2.6094433E1,1.952758E1,6.0184162E1,-4.0338755E0,1.257842E0,-3.0348918E0,6.8517184E-1,4.0226507E-1,3.5541706E0,7.1087146E0,3.0479639E0],"categories":[],"categories_nodes":[],"categories_segments":[],"categories_sizes":[],"default_left":[0,0,0,0,0,0,0,0,0,0,0,0,0,0,0],"id":7,"left_children":[1,3,5,7,9,11,13,-1,-1,-1,-1,-1,-1,-1,-1],"loss_changes":[1.6469611E5,5.1375516E4,3.4933164E4,1.5167287E4,2.2494797E4,2.66732E4,6.5777266E3,0E0,0E0,0E0,0E0,0E0,0E0,0E0,0E0],"parents":[2147483647,0,0,1,1,2,2,3,3,4,4,5,5,6,6],"right_children":[2,4,6,8,10,12,14,-1,-1,-1,-1,-1,-1,-1,-1],"split_conditions":[9.961227E-3,-1.7629381E-2,7.355214E-2,-4.2570855E-2,2.472964E-2,1.7293394E-2,2.2485405E-2,-4.0338755E0,1.257842E0,-3.0348918E0,6.8517184E-1,4.0226507E-1,3.5541706E0,7.1087146E0,3.0479639E0],"split_indices":[2,6,2,8,8,3,5,0,0,0,0,0,0,0,0],"split_type":[0,0,0,0,0,0,0,0,0,0,0,0,0,0,0],"sum_hessian":[3.53E2,2.2E2,1.33E2,6.2E1,1.58E2,1.07E2,2.6E1,5E0,5.7E1,1.4E2,1.8E1,5.5E1,5.2E1,1.8E1,8E0],"tree_param":{"num_deleted":"0","num_feature":"10","num_nodes":"15","size_leaf_vector":"1"}},{"base_weights":[2.0958787E-1,-1.9435427E1,1.974306E1,-3.1703962E1,-7.492593E0,3.1876922E0,3.908608E1,-3.3159769E0,4.674771E0,6.278213E0,-1.0601755E0,7.5868577E-1,-4.066935E0,1.822551E0,5.423277E0],"categories":[],"categories_nodes":[],"categories_segments":[],"categories_sizes":[],"default_left":[0,0,0,0,0,0,0,0,0,0,0,0,0,0,0],"id":8,"left_children":[1,3,5,7,9,11,13,-1,-1,-1,-1,-1,-1,-1,-1],"loss_changes":[1.3622603E5,2.569668E4,5.6876492E4,1.1486453E4,2.0548691E4,1.9023186E4,2.4921016E4,0E0,0E0,0E0,0E0,0E0,0E0,0E0,0E0],"parents":[2147483647,0,0,1,1,2,2,3,3,4,4,5,5,6,6],"right_children":[2,4,6,8,10,12,14,-1,-1,-1,-1,-1,-1,-1,-1],"split_conditions":[-6.1173533E-4,-3.3245593E-2,1.8583724E-2,9.4172254E-2,-8.179786E-2,7.9612255E-2,2.5315236E-2,-3.3159769E0,4.674771E0,6.278213E0,-1.0601755E0,7.5868577E-1,-4.066935E0,1.822551E0,5.423277E0],"split_indices":[8,8,2,3,0,4,3,0,0,0,0,0,0,0,0],"split_type":[0,0,0,0,0,0,0,0,0,0,0,0,0,0,0],"sum_hessian":[3.53E2,1.76E2,1.77E2,8.6E1,9E1,9.6E1,8.1E1,8.5E1,1E0,3E0,8.7E1,8.8E1,8E0,3.5E1,4.6E1],"tree_param":{"num_deleted":"0","num_feature":"10","num_nodes":"15","size_leaf_vector":"1"}},{"base_weights":[2.1833177E-1,-1.46707E1,2.1780252E1,-2.1151896E1,1.5221868E1,1.1354683E1,4.3971046E1,-2.6467614E0,-4.9656412E-1,2.716569E0,-3.2963178E0,3.9683586E-1,4.4783034E0,-3.6502712E0,5.0434394E0],"categories":[],"categories_nodes":[],"categories_segments":[],"categories_sizes":[],"default_left":[0,0,0,0,0,0,0,0,0,0,0,0,0,0,0],"id":9,"left_children":[1,3,5,7,9,11,13,-1,-1,-1,-1,-1,-1,-1,-1],"loss_changes":[1.1396632E5,4.1007273E4,3.304671E4,1.4753766E4,2.2764984E4,2.451355E4,2.576696E4,0E0,0E0,0E0,0E0,0E0,0E0,0E0,0E0],"parents":[2147483647,0,0,1,1,2,2,3,3,4,4,5,5,6,6],"right_children":[2,4,6,8,10,12,14,-1,-1,-1,-1,-1,-1,-1,-1],"split_conditions":[5.6499788E-3,2.2687744E-2,4.034337E-2,3.081083E-2,7.54844E-2,6.2050458E-2,-6.1173533E-4,-2.6467614E0,-4.9656412E-1,2.716569E0,-3.2963178E0,3.9683586E-1,4.4783034E0,-3.6502712E0,5.0434394E0],"split_indices":[2,8,9,0,4,3,8,0,0,0,0,0,0,0,0],"split_type":[0,0,0,0,0,0,0,0,0,0,0,0,0,0,0],"sum_hessian":[3.53E2,2.09E2,1.44E2,1.72E2,3.7E1,9.9E1,4.5E1,1.29E2,4.3E1,3E1,7E0,8.2E1,1.7E1,3E0,4.2E1],"tree_param":{"num_deleted":"0","num_feature":"10","num_nodes":"15","size_leaf_vector":"1"}},{"base_weights":[2.036878E-1,-1.181764E1,2.2050358E1,7.3303432E0,-1.9615784E1,1.3222958E1,5.5493324E1,1.17077805E-1,6.975746E0,-2.4063003E0,4.7431484E-1,1.6578327E-1,3.0107095E0,5.7159534E0,6.9190294E-1],"categories":[],"categories_nodes":[],"categories_segments":[],"categories_sizes":[],"default_left":[0,0,0,0,0,0,0,0,0,0,0,0,0,0,0],"id":10,"left_children":[1,3,5,7,9,11,13,-1,-1,-1,-1,-1,-1,-1,-1],"loss_changes":[9.323019E4,3.4337773E4,3.646324E4,2.568143E4,1.7771852E4,1.967207E4,1.7088125E3,0E0,0E0,0E0,0E0,0E0,0E0,0E0,0E0],"parents":[2147483647,0,0,1,1,2,2,3,3,4,4,5,5,6,6],"right_children":[2,4,6,8,10,12,14,-1,-1,-1,-1,-1,-1,-1,-1],"split_conditions":[1.7036071E-2,-1.3947743E-2,6.31866E-2,6.385183E-2,1.747503E-2,3.205916E-2,1.2639466E-1,1.17077805E-1,6.975746E0,-2.4063003E0,4.7431484E-1,1.6578327E-1,3.0107095E0,5.7159534E0,6.9190294E-1],"split_indices":[8,6,3,2,5,9,4,0,0,0,0,0,0,0,0],"split_type":[0,0,0,0,0,0,0,0,0,0,0,0,0,0,0],"sum_hessian":[3.53E2,2.28E2,1.25E2,6.6E1,1.62E2,1E2,2.5E1,6.1E1,5E0,1.37E2,2.5E1,6E1,4E1,2.4E1,1E0],"tree_param":{"num_deleted":"0","num_feature":"10","num_nodes":"15","size_leaf_vector":"1"}},{"base_weights":[2.2497076E-1,-1.227363E1,1.832484E1,-1.7592667E1,1.2264973E1,9.6750555E0,3.673036E1,-1.0601635E0,-2.7976227E0,-2.5446548E0,2.4846017E0,5.9413385E-1,5.843139E0,-3.2591133E0,4.232467E0],"categories":[],"categories_nodes":[],"categories_segments":[],"categories_sizes":[],"default_left":[0,0,0,0,0,0,0,0,0,0,0,0,0,0,0],"id":11,"left_children":[1,3,5,7,9,11,13,-1,-1,-1,-1,-1,-1,-1,-1],"loss_changes":[8.0307875E4,2.7625338E4,2.2729184E4,1.2261785E4,1.8661355E4,1.7857076E4,1.92185E4,0E0,0E0,0E0,0E0,0E0,0E0,0E0,0E0],"parents":[2147483647,0,0,1,1,2,2,3,3,4,4,5,5,6,6],"right_children":[2,4,6,8,10,12,14,-1,-1,-1,-1,-1,-1,-1,-1],"split_conditions":[5.6499788E-3,2.2687744E-2,4.034337E-2,2.2868635E-2,-3.207709E-2,1.1127556E-1,-6.1173533E-4,-1.0601635E0,-2.7976227E0,-2.5446548E0,2.4846017E0,5.9413385E-1,5.843139E0,-3.2591133E0,4.232467E0],"split_indices":[2,8,9,6,3,2,8,0,0,0,0,0,0,0,0],"split_type":[0,0,0,0,0,0,0,0,0,0,0,0,0,0,0],"sum_hessian":[3.53E2,2.09E2,1.44E2,1.72E2,3.7E1,9.9E1,4.5E1,1.04E2,6.8E1,9E0,2.8E1,9.3E1,6E0,3E0,4.2E1],"tree_param":{"num_deleted":"0","num_feature":"10","num_nodes":"15","size_leaf_vector":"1"}},{"base_weights":[2.1234122E-1,-1.0369928E1,1.7663605E1,6.950607E0,-1.7167562E1,5.4256434E0,2.8446222E1,3.0200207E-1,5.1941404E0,-3.1325784E0,-1.0762875E0,2.9655054E0,-8.889758E-1,-5.2268248E0,3.154328E0],"categories":[],"categories_nodes":[],"categories_segments":[],"categories_sizes":[],"default_left":[0,0,0,0,0,0,0,0,0,0,0,0,0,0,0],"id":12,"left_children":[1,3,5,7,9,11,13,-1,-1,-1,-1,-1,-1,-1,-1],"loss_changes":[6.555775E4,2.6139568E4,1.7527934E4,1.0984069E4,1.4080805E4,2.2462262E4,1.9397125E4,0E0,0E0,0E0,0E0,0E0,0E0,0E0,0E0],"parents":[2147483647,0,0,1,1,2,2,3,3,4,4,5,5,6,6],"right_children":[2,4,6,8,10,12,14,-1,-1,-1,-1,-1,-1,-1,-1],"split_conditions":[9.961227E-3,-1.7629381E-2,1.7293394E-2,1.081111E-1,-3.321323E-2,3.151747E-2,-4.987245E-2,3.0200207E-1,5.1941404E0,-3.1325784E0,-1.0762875E0,2.9655054E0,-8.889758E-1,-5.2268248E0,3.154328E0],"split_indices":[2,6,3,7,3,2,8,0,0,0,0,0,0,0,0],"split_type":[0,0,0,0,0,0,0,0,0,0,0,0,0,0,0],"sum_hessian":[3.53E2,2.2E2,1.33E2,6.2E1,1.58E2,6.3E1,7E1,5.8E1,4E0,4.8E1,1.1E2,2.3E1,4E1,2E0,6.8E1],"tree_param":{"num_deleted":"0","num_feature":"10","num_nodes":"15","size_leaf_vector":"1"}},{"base_weights":[1.9475573E-1,-2.125072E1,7.5862083E0,-3.5740677E1,-1.3168565E1,8.394858E-2,2.5804892E1,2.3596635E0,-3.8415964E0,1.4606029E-1,-3.2355192E0,-3.3047155E-1,4.243625E0,5.173974E0,1.641693E0],"categories":[],"categories_nodes":[],"categories_segments":[],"categories_sizes":[],"default_left":[0,0,0,0,0,0,0,0,0,0,0,0,0,0,0],"id":13,"left_children":[1,3,5,7,9,11,13,-1,-1,-1,-1,-1,-1,-1,-1],"loss_changes":[5.627489E4,1.0186367E4,3.6081695E4,5.9863086E3,1.6888318E4,2.7121572E4,1.7898195E4,0E0,0E0,0E0,0E0,0E0,0E0,0E0,0E0],"parents":[2147483647,0,0,1,1,2,2,3,3,4,4,5,5,6,6],"right_children":[2,4,6,8,10,12,14,-1,-1,-1,-1,-1,-1,-1,-1],"split_conditions":[-3.198764E-2,-3.665608E-2,3.908664E-2,-1.01639956E-1,5.068012E-2,7.031871E-2,-2.6365755E-2,2.3596635E0,-3.8415964E0,1.4606029E-1,-3.2355192E0,-3.3047155E-1,4.243625E0,5.173974E0,1.641693E0],"split_indices":[8,3,3,8,1,2,5,0,0,0,0,0,0,0,0],"split_type":[0,0,0,0,0,0,0,0,0,0,0,0,0,0,0],"sum_hessian":[3.53E2,9E1,2.63E2,3.1E1,5.9E1,1.87E2,7.6E1,1E0,3E1,3.4E1,2.5E1,1.74E2,1.3E1,1.9E1,5.7E1],"tree_param":{"num_deleted":"0","num_feature":"10","num_nodes":"15","size_leaf_vector":"1"}},{"base_weights":[1.9267601E-1,-8.335298E0,1.5690401E1,-1.2004973E0,-2.240399E1,8.631463E0,4.2508183E1,-2.215164E0,4.5233724E-1,-1.5134075E0,-4.106976E0,4.1892204E-1,4.459625E0,5.410571E0,2.8702755E0],"categories":[],"categories_nodes":[],"categories_segments":[],"categories_sizes":[],"default_left":[0,0,0,0,0,0,0,0,0,0,0,0,0,0,0],"id":14,"left_children":[1,3,5,7,9,11,13,-1,-1,-1,-1,-1,-1,-1,-1],"loss_changes":[4.6916914E4,2.2959508E4,2.348553E4,1.8448205E4,9.827238E3,1.5949372E4,2.6098477E3,0E0,0E0,0E0,0E0,0E0,0E0,0E0,0E0],"parents":[2147483647,0,0,1,1,2,2,3,3,4,4,5,5,6,6],"right_children":[2,4,6,8,10,12,14,-1,-1,-1,-1,-1,-1,-1,-1],"split_conditions":[1.7036071E-2,2.2868635E-2,6.31866E-2,-4.2570855E-2,5.068012E-2,1.081111E-1,5.954058E-2,-2.215164E0,4.5233724E-1,-1.5134075E0,-4.106976E0,4.1892204E-1,4.459625E0,5.410571E0,2.8702755E0],"split_indices":[8,6,3,8,1,7,2,0,0,0,0,0,0,0,0],"split_type":[0,0,0,0,0,0,0,0,0,0,0,0,0,0,0],"sum_hessian":[3.53E2,2.28E2,1.25E2,1.52E2,7.6E1,1E2,2.5E1,3.2E1,1.2E2,5.6E1,2E1,9E1,1E1,1.2E1,1.3E1],"tree_param":{"num_deleted":"0","num_feature":"10","num_nodes":"15","size_leaf_vector":"1"}},{"base_weights":[1.8972836E-1,-8.062097E0,1.3797667E1,5.1989164E0,-1.3865258E1,8.8611765E0,3.3032604E1,-2.884871E0,9.578951E-1,1.301133E-1,-1.9752249E0,2.1215913E0,3.579712E-3,1.20211795E-1,3.851607E0],"categories":[],"categories_nodes":[],"categories_segments":[],"categories_sizes":[],"default_left":[0,0,0,0,0,0,0,0,0,0,0,0,0,0,0],"id":15,"left_children":[1,3,5,7,9,11,13,-1,-1,-1,-1,-1,-1,-1,-1],"loss_changes":[3.9862016E4,1.7079314E4,1.2431002E4,1.0417165E4,1.3775496E4,1.1775044E4,4.6663203E3,0E0,0E0,0E0,0E0,0E0,0E0,0E0,0E0],"parents":[2147483647,0,0,1,1,2,2,3,3,4,4,5,5,6,6],"right_children":[2,4,6,8,10,12,14,-1,-1,-1,-1,-1,-1,-1,-1],"split_conditions":[9.961227E-3,-1.3947743E-2,7.355214E-2,-4.2570855E-2,-3.8719688E-2,3.259528E-2,-4.9105015E-2,-2.884871E0,9.578951E-1,1.301133E-1,-1.9752249E0,2.1215913E0,3.579712E-3,1.20211795E-1,3.851607E0],"split_indices":[2,6,2,8,4,2,0,0,0,0,0,0,0,0,0],"split_type":[0,0,0,0,0,0,0,0,0,0,0,0,0,0,0],"sum_hessian":[3.53E2,2.2E2,1.33E2,6.7E1,1.53E2,1.07E2,2.6E1,7E0,6E1,4.3E1,1.1E2,4.4E1,6.3E1,4E0,2.2E1],"tree_param":{"num_deleted":"0","num_feature":"10","num_nodes":"15","size_leaf_vector":"1"}},{"base_weights":[1.7732093E-1,-6.5668893E0,1.4808265E1,1.654036E0,-1.7387287E1,4.165078E1,5.791809E0,1.9170355E0,-1.0395172E0,-3.7485695E0,-1.221724E0,2.786864E0,7.901597E0,-1.6906677E0,1.664984E0],"categories":[],"categories_nodes":[],"categories_segments":[],"categories_sizes":[],"default_left":[0,0,0,0,0,0,0,0,0,0,0,0,0,0,0],"id":16,"left_children":[1,3,5,7,9,11,13,-1,-1,-1,-1,-1,-1,-1,-1],"loss_changes":[3.50279E4,2.1644504E4,2.6865494E4,2.9536307E4,1.0452549E4,1.2217148E4,2.1230666E4,0E0,0E0,0E0,0E0,0E0,0E0,0E0,0E0],"parents":[2147483647,0,0,1,1,2,2,3,3,4,4,5,5,6,6],"right_children":[2,4,6,8,10,12,14,-1,-1,-1,-1,-1,-1,-1,-1],"split_conditions":[2.5315236E-2,5.068012E-2,-1.3952536E-2,7.78808E-4,-4.5472477E-2,-2.0415934E-2,1.40735E-2,1.9170355E0,-1.0395172E0,-3.7485695E0,-1.221724E0,2.786864E0,7.901597E0,-1.6906677E0,1.664984E0],"split_indices":[3,1,4,6,0,5,8,0,0,0,0,0,0,0,0],"split_type":[0,0,0,0,0,0,0,0,0,0,0,0,0,0,0],"sum_hessian":[3.53E2,2.42E2,1.11E2,1.38E2,1.04E2,2.7E1,8.4E1,5.6E1,8.2E1,2E1,8.4E1,2.1E1,6E0,2.7E1,5.7E1],"tree_param":{"num_deleted":"0","num_feature":"10","num_nodes":"15","size_leaf_vector":"1"}},{"base_weights":[1.7814979E-1,-1.6173792E1,5.485765E0,-1.7513926E1,4.9538827E0,-5.9498254E-2,1.8994219E1,-5.242374E-1,-2.711969E0,5.5080366E0,-2.1455498E-1,4.2258162E0,1.1310735E0],"categories":[],"categories_nodes":[],"categories_segments":[],"categories_sizes":[],"default_left":[0,0,0,0,0,0,0,0,0,0,0,0,0],"id":17,"left_children":[1,3,5,7,-1,9,11,-1,-1,-1,-1,-1,-1],"loss_changes":[3.0812318E4,8.52916E3,2.0076457E4,9.995301E3,0E0,2.2087875E4,1.3464381E4,0E0,0E0,0E0,0E0,0E0,0E0],"parents":[2147483647,0,0,1,1,2,2,3,3,5,5,6,6],"right_children":[2,4,6,8,-1,10,12,-1,-1,-1,-1,-1,-1],"split_conditions":[-3.3245593E-2,9.4172254E-2,3.908664E-2,-3.8719688E-2,4.9538827E0,-8.179786E-2,-1.2576583E-2,-5.242374E-1,-2.711969E0,5.5080366E0,-2.1455498E-1,4.2258162E0,1.1310735E0],"split_indices":[8,3,3,4,0,0,4,0,0,0,0,0,0],"split_type":[0,0,0,0,0,0,0,0,0,0,0,0,0],"sum_hessian":[3.53E2,8.6E1,2.67E2,8.5E1,1E0,1.9E2,7.7E1,3.8E1,4.7E1,6E0,1.84E2,1.8E1,5.9E1],"tree_param":{"num_deleted":"0","num_feature":"10","num_nodes":"13","size_leaf_vector":"1"}},{"base_weights":[1.9527215E-1,-6.346076E0,1.2082363E1,-7.881228E0,3.2055542E1,1.9921587E1,-4.655579E0,-1.9332939E0,-3.8774174E-1,4.5379386E0,1.7830391E0,3.1930876E0,9.749007E-1,-2.69719E0,2.84364E0],"categories":[],"categories_nodes":[],"categories_segments":[],"categories_sizes":[],"default_left":[0,0,0,0,0,0,0,0,0,0,0,0,0,0,0],"id":18,"left_children":[1,3,5,7,9,11,13,-1,-1,-1,-1,-1,-1,-1,-1],"loss_changes":[2.760287E4,1.3752716E4,1.662552E4,1.0057994E4,8.966719E2,1.0194934E4,3.1045129E4,0E0,0E0,0E0,0E0,0E0,0E0,0E0,0E0],"parents":[2147483647,0,0,1,1,2,2,3,3,4,4,5,5,6,6],"right_children":[2,4,6,8,10,12,14,-1,-1,-1,-1,-1,-1,-1,-1],"split_conditions":[1.7036071E-2,7.355214E-2,5.20932E-2,-4.2570855E-2,-2.1311019E-2,5.068012E-2,6.301517E-2,-1.9332939E0,-3.8774174E-1,4.5379386E0,1.7830391E0,3.1930876E0,9.749007E-1,-2.69719E0,2.84364E0],"split_indices":[8,2,4,8,6,1,8,0,0,0,0,0,0,0,0],"split_type":[0,0,0,0,0,0,0,0,0,0,0,0,0,0,0],"sum_hessian":[3.53E2,2.28E2,1.25E2,2.2E2,8E0,8.5E1,4E1,5.6E1,1.64E2,3E0,5E0,3.8E1,4.7E1,2.4E1,1.6E1],"tree_param":{"num_deleted":"0","num_feature":"10","num_nodes":"15","size_leaf_vector":"1"}},{"base_weights":[1.9923192E-1,-5.686492E0,1.10273695E1,-1.2733538E0,-1.6403927E1,-1.0652854E1,1.5258392E1,-8.4274435E-1,7.328532E-1,2.3091657E0,-1.9278119E0,-5.2899985E0,5.855624E-1,2.1209993E0,-2.7206755E-1],"categories":[],"categories_nodes":[],"categories_segments":[],"categories_sizes":[],"default_left":[0,0,0,0,0,0,0,0,0,0,0,0,0,0,0],"id":19,"left_children":[1,3,5,7,9,11,13,-1,-1,-1,-1,-1,-1,-1,-1],"loss_changes":[2.2623635E4,1.0857541E4,1.1628732E4,1.0154102E4,8.0508574E3,1.4955915E4,1.1293148E4,0E0,0E0,0E0,0E0,0E0,0E0,0E0,0E0],"parents":[2147483647,0,0,1,1,2,2,3,3,4,4,5,5,6,6],"right_children":[2,4,6,8,10,12,14,-1,-1,-1,-1,-1,-1,-1,-1],"split_conditions":[1.4272476E-2,3.391355E-2,-1.5507654E-2,-2.1295324E-2,-8.116674E-2,-3.207709E-2,4.3466352E-2,-8.4274435E-1,7.328532E-1,2.3091657E0,-1.9278119E0,-5.2899985E0,5.855624E-1,2.1209993E0,-2.7206755E-1],"split_indices":[2,6,7,2,5,3,5,0,0,0,0,0,0,0,0],"split_type":[0,0,0,0,0,0,0,0,0,0,0,0,0,0,0],"sum_hessian":[3.53E2,2.29E2,1.24E2,1.63E2,6.6E1,2E1,1.04E2,8.9E1,7.4E1,4E0,6.2E1,5E0,1.5E1,7.8E1,2.6E1],"tree_param":{"num_deleted":"0","num_feature":"10","num_nodes":"15","size_leaf_vector":"1"}}]},"name":"gbtree"},"learner_model_param":{"base_score":"[1.5373654E2]","boost_from_average":"1","num_class":"0","num_feature":"10","num_target":"1"},"objective":{"name":"reg:squarederror","reg_loss_param":{"scale_pos_weight":"1"}}},"version":[3,2,0]}